{"learner":{"attributes":{"best_iteration":"1","best_score":"0.7203314623435598","scikit_learn":"{\"_estimator_type\": \"ranker\"}"},"feature_names":["g_contrast","f_conf","meta_year"],"feature_types":["float","float","float"],"gradient_booster":{"model":{"cats":{"enc":[],"feature_segments":[],"sorted_idx":[]},"gbtree_model_param":{"num_parallel_tree":"1","num_trees":"10"},"iteration_indptr":[0,1,2,3,4,5,6,7,8,9,10],"tree_info":[0,0,0,0,0,0,0,0,0,0],"trees":[{"base_weights":[-1.1117649E-2,-2.703813E-1,2.3343039E-1,-1.1198088E-1,-4.626895E-1,-4.5992383E-1,2.6432693E-1,-5.4890674E-1,-1.8582338E-2,-5.368006E-1,-1.9272067E-1,-1.4085806E-2,-1.2559812E-1,3.3385438E-1,-3.1084558E-2,-7.2835176E-3,-1.4623038E-1,5.171705E-2,-3.591091E-1,-5.6187016E-1,-1.6012108E-2,3.709333E-2,-3.392729E-1,3.9610118E-1,9.394457E-2,-3.6589134E-1,3.268987E-1,3.9259393E-2,-1.8576896E-2,-1.3890074E-1,-6.7040487E-3,-1.2705313E-1,-7.2179675E-2,4.0893428E-2,-1.00473285E-1,6.090001E-2,1.1904068E-1,-3.1153027E-2,4.8896737E-2,-1.0028173E-1,2.2982689E-2,-1.879139E-2,9.7454764E-2],"categories":[],"categories_nodes":[],"categories_segments":[],"categories_sizes":[],"default_left":[0,0,0,0,0,0,0,0,0,0,0,0,0,0,0,0,0,0,0,0,0,0,0,0,0,0,0,0,0,0,0,0,0,0,0,0,0,0,0,0,0,0,0],"id":0,"left_children":[1,3,5,7,9,11,13,15,17,19,21,-1,-1,23,25,-1,-1,27,29,31,-1,-1,33,35,37,39,41,-1,-1,-1,-1,-1,-1,-1,-1,-1,-1,-1,-1,-1,-1,-1,-1],"loss_changes":[1.0578613E1,2.4146047E0,1.9614296E0,1.8554435E0,6.2183523E-1,2.1950358E-1,1.7121873E0,7.2210455E-1,9.4502413E-1,2.7427864E-1,5.8214116E-1,0E0,0E0,9.656725E-1,2.1212523E0,0E0,0E0,7.07155E-1,7.1363467E-1,1.5816021E-1,0E0,0E0,7.328051E-1,7.855644E-1,6.0742307E-1,6.5064573E-1,6.261734E-1,0E0,0E0,0E0,0E0,0E0,0E0,0E0,0E0,0E0,0E0,0E0,0E0,0E0,0E0,0E0,0E0],"parents":[2147483647,0,0,1,1,2,2,3,3,4,4,5,5,6,6,7,7,8,8,9,9,10,10,13,13,14,14,17,17,18,18,19,19,22,22,23,23,24,24,25,25,26,26],"right_children":[2,4,6,8,10,12,14,16,18,20,22,-1,-1,24,26,-1,-1,28,30,32,-1,-1,34,36,38,40,42,-1,-1,-1,-1,-1,-1,-1,-1,-1,-1,-1,-1,-1,-1,-1,-1],"split_conditions":[2.024E3,6.71713E1,2.5092237E1,2.021E3,8.095878E1,1.2372336E1,6.7284966E1,4.5404488E1,6.311062E-1,8.940025E-1,8.12972E1,-1.4085806E-2,-1.2559812E-1,8.497982E-1,7.805941E1,-7.2835176E-3,-1.4623038E-1,5.6824554E1,5.7706753E1,7.4947914E1,-1.6012108E-2,3.709333E-2,2.023E3,6.0691563E1,8.858342E-1,8.8441235E-1,6.311062E-1,3.9259393E-2,-1.8576896E-2,-1.3890074E-1,-6.7040487E-3,-1.2705313E-1,-7.2179675E-2,4.0893428E-2,-1.00473285E-1,6.090001E-2,1.1904068E-1,-3.1153027E-2,4.8896737E-2,-1.0028173E-1,2.2982689E-2,-1.879139E-2,9.7454764E-2],"split_indices":[2,0,0,2,0,0,0,0,1,1,0,0,0,1,0,0,0,0,0,0,0,0,2,0,1,1,1,0,0,0,0,0,0,0,0,0,0,0,0,0,0,0,0],"split_type":[0,0,0,0,0,0,0,0,0,0,0,0,0,0,0,0,0,0,0,0,0,0,0,0,0,0,0,0,0,0,0,0,0,0,0,0,0,0,0,0,0,0,0],"sum_hessian":[1.6485327E2,7.99678E1,8.4885475E1,4.4717327E1,3.5250473E1,3.02884E0,8.1856636E1,7.016507E0,3.770082E1,2.6882406E1,8.368065E0,1.3407362E0,1.6881038E0,6.615613E1,1.5700507E1,2.1553383E0,4.861169E0,3.1952562E1,5.7482586E0,2.5265461E1,1.6169459E0,2.2629209E0,6.1051435E0,5.2010487E1,1.4145641E1,8.1014595E0,7.599047E0,1.5798711E1,1.615385E1,2.2733614E0,3.4748971E0,1.6923851E1,8.341609E0,1.3501565E0,4.7549872E0,3.7354248E1,1.46562395E1,5.3073144E0,8.838327E0,6.286675E0,1.8147849E0,2.2110257E0,5.3880215E0],"tree_param":{"num_deleted":"0","num_feature":"3","num_nodes":"43","size_leaf_vector":"1"}},{"base_weights":[2.1555848E-2,-1.07516624E-1,1.21077694E-1,-6.840081E-2,-5.9402794E-1,2.8010292E-2,2.2544818E-1,1.3612898E-1,-8.9061365E-2,-7.3205197E-1,2.6545307E-2,1.3895941E-1,-1.4139152E-1,3.997136E-1,-3.1279146E-3,-1.2267878E-1,3.9601555E-1,-9.548597E-3,-1.6667645E-1,9.439499E-2,1.5494327E-1,6.8144804E-1,2.5937635E-1,-1.1895374E-1,1.5224971E-1,-8.7423794E-2,-2.0483028E-2,1.23692475E-1,-9.771266E-2,3.632625E-2,-7.844989E-2,1.4593111E-1,1.6529642E-2,-2.3807155E-2,7.2176285E-2,-6.2842206E-3,-7.7440925E-2],"categories":[],"categories_nodes":[],"categories_segments":[],"categories_sizes":[],"default_left":[0,0,0,0,0,0,0,0,0,0,0,0,0,0,0,0,0,0,0,0,0,0,0,0,0,0,0,0,0,0,0,0,0,0,0,0,0],"id":1,"left_children":[1,3,5,7,9,11,13,-1,15,17,-1,19,-1,21,23,25,27,-1,-1,29,-1,31,33,35,-1,-1,-1,-1,-1,-1,-1,-1,-1,-1,-1,-1,-1],"loss_changes":[3.5529861E0,2.2526567E0,1.5096931E0,1.8042598E0,9.8366976E-1,6.919037E0,2.9260573E0,0E0,1.8509922E0,4.8586273E-1,0E0,2.0095797E0,0E0,1.4708242E0,2.9905915E0,6.1871445E-1,1.7582914E0,0E0,0E0,3.0359075E0,0E0,3.2191515E-1,1.1733859E0,6.7606485E-1,0E0,0E0,0E0,0E0,0E0,0E0,0E0,0E0,0E0,0E0,0E0,0E0,0E0],"parents":[2147483647,0,0,1,1,2,2,3,3,4,4,5,5,6,6,8,8,9,9,11,11,13,13,14,14,15,15,16,16,19,19,21,21,22,22,23,23],"right_children":[2,4,6,8,10,12,14,-1,16,18,-1,20,-1,22,24,26,28,-1,-1,30,-1,32,34,36,-1,-1,-1,-1,-1,-1,-1,-1,-1,-1,-1,-1,-1],"split_conditions":[2.024E3,8.3961385E-1,5.7351273E1,3.4725125E0,8.9555824E-1,5.6824554E1,8.0373985E-1,1.3612898E-1,7.884528E-1,6.060105E1,2.6545307E-2,5.6383633E1,-1.4139152E-1,5.9579266E1,8.433009E1,3.6207718E1,7.158055E1,-9.548597E-3,-1.6667645E-1,5.5880207E1,1.5494327E-1,6.856391E-1,6.1253345E1,7.750419E1,1.5224971E-1,-8.7423794E-2,-2.0483028E-2,1.23692475E-1,-9.771266E-2,3.632625E-2,-7.844989E-2,1.4593111E-1,1.6529642E-2,-2.3807155E-2,7.2176285E-2,-6.2842206E-3,-7.7440925E-2],"split_indices":[2,1,0,0,1,0,1,0,1,0,0,0,0,0,0,0,0,0,0,0,0,1,0,0,0,0,0,0,0,0,0,0,0,0,0,0,0],"split_type":[0,0,0,0,0,0,0,0,0,0,0,0,0,0,0,0,0,0,0,0,0,0,0,0,0,0,0,0,0,0,0,0,0,0,0,0,0],"sum_hessian":[2.7457977E2,1.195073E2,1.5507246E2,1.1166959E2,7.837711E0,8.2645584E1,7.242689E1,2.1400003E0,1.0952959E2,6.580638E0,1.2570733E0,7.251049E1,1.0135091E1,4.067087E1,3.175601E1,1.0312948E2,6.4001145E0,1.0385052E0,5.5421324E0,6.883395E1,3.6765504E0,1.2240877E1,2.8429996E1,2.8310503E1,3.4455073E0,4.9982195E0,9.8131256E1,5.3544583E0,1.0456566E0,5.890191E1,9.932033E0,1.112658E1,1.1142969E0,5.976568E0,2.2453428E1,2.218762E1,6.122884E0],"tree_param":{"num_deleted":"0","num_feature":"3","num_nodes":"37","size_leaf_vector":"1"}},{"base_weights":[1.7843386E-2,-9.0755485E-2,1.09027445E-1,-7.205536E-2,-4.8985326E-1,1.21676415E-1,-9.4934724E-2,-8.630144E-2,1.0840135E-1,-1.2710123E-1,1.5090358E-4,-3.1390053E-1,1.3934386E-1,1.1877346E-2,-1.23092584E-1,-1.0037913E-2,-1.19811036E-1,1.14061065E-1,3.6280397E-1,3.4973685E-2,-4.3687046E-2,-5.059138E-2,3.1503327E-3,2.8281111E-2,-6.542593E-2,1.1587902E-1,-1.12397205E-2],"categories":[],"categories_nodes":[],"categories_segments":[],"categories_sizes":[],"default_left":[0,0,0,0,0,0,0,0,0,0,0,0,0,0,0,0,0,0,0,0,0,0,0,0,0,0,0],"id":2,"left_children":[1,3,5,7,9,11,-1,13,-1,-1,-1,15,17,19,21,-1,-1,23,25,-1,-1,-1,-1,-1,-1,-1,-1],"loss_changes":[2.6251044E0,8.6837023E-1,1.1210345E0,1.0688572E0,3.754276E-1,1.1346138E0,0E0,4.170348E-1,0E0,0E0,0E0,4.0856653E-1,7.3218155E-1,1.2496967E0,1.5145541E0,0E0,0E0,1.5477935E0,1.2539439E0,0E0,0E0,0E0,0E0,0E0,0E0,0E0,0E0],"parents":[2147483647,0,0,1,1,2,2,3,3,4,4,5,5,7,7,11,11,12,12,13,13,14,14,17,17,18,18],"right_children":[2,4,6,8,10,12,-1,14,-1,-1,-1,16,18,20,22,-1,-1,24,26,-1,-1,-1,-1,-1,-1,-1,-1],"split_conditions":[2.024E3,8.3961385E-1,9.169513E-1,8.3554476E-1,7.434741E1,2.5092237E1,-9.4934724E-2,2.023E3,1.0840135E-1,-1.2710123E-1,1.5090358E-4,1.2372336E1,8.986477E-1,6.40251E1,6.467082E1,-1.0037913E-2,-1.19811036E-1,8.907938E-1,9.0370935E-1,3.4973685E-2,-4.3687046E-2,-5.059138E-2,3.1503327E-3,2.8281111E-2,-6.542593E-2,1.1587902E-1,-1.12397205E-2],"split_indices":[2,1,1,1,0,0,0,2,0,0,0,0,1,0,0,0,0,1,1,0,0,0,0,0,0,0,0],"split_type":[0,0,0,0,0,0,0,0,0,0,0,0,0,0,0,0,0,0,0,0,0,0,0,0,0,0,0],"sum_hessian":[2.6309625E2,1.200834E2,1.4301285E2,1.1583632E2,4.24708E0,1.4075421E2,2.2586408E0,1.1404985E2,1.7864681E0,3.047104E0,1.1999761E0,4.833008E0,1.359212E2,3.1273176E1,8.277667E1,3.1218913E0,1.7111163E0,1.23462776E2,1.245843E1,1.8454062E1,1.2819114E1,4.234682E1,4.0429855E1,1.1689712E2,6.565657E0,7.960623E0,4.497808E0],"tree_param":{"num_deleted":"0","num_feature":"3","num_nodes":"27","size_leaf_vector":"1"}},{"base_weights":[3.6375318E-2,9.508568E-2,-1.4681537E-1,4.3775287E-2,3.1549597E-1,-4.069068E-1,-5.9328154E-2,1.8004304E-1,-5.484974E-2,1.4143759E-1,4.6183434E-1,-1.4118624E-1,-2.7952054E-1,1.3883735E-1,-1.2184064E-1,3.2801878E-2,4.7104326E-1,-5.115645E-1,-9.3618175E-3,3.08009E-1,-9.510066E-2,3.3465916E-1,7.1577907E-1,6.347518E-2,-5.668076E-1,-2.383599E-1,2.2839433E-1,4.3506194E-2,-4.1670334E-2,1.0643474E-1,4.3102723E-2,-1.1905565E-1,-5.353085E-2,5.1140725E-3,-1.1903918E-1,4.672618E-3,9.219258E-2,8.88007E-2,-2.6500136E-2,1.5591986E-1,4.574564E-2,-3.299068E-2,3.4204677E-2,-1.3719349E-1,-4.0272202E-2,1.4520264E-2,-7.113626E-2,-1.4773666E-2,9.809739E-2],"categories":[],"categories_nodes":[],"categories_segments":[],"categories_sizes":[],"default_left":[0,0,0,0,0,0,0,0,0,0,0,0,0,0,0,0,0,0,0,0,0,0,0,0,0,0,0,0,0,0,0,0,0,0,0,0,0,0,0,0,0,0,0,0,0,0,0,0,0],"id":3,"left_children":[1,3,5,7,9,11,13,15,17,19,21,-1,23,-1,25,27,29,31,33,35,-1,37,39,41,43,45,47,-1,-1,-1,-1,-1,-1,-1,-1,-1,-1,-1,-1,-1,-1,-1,-1,-1,-1,-1,-1,-1,-1],"loss_changes":[2.8334403E0,2.238247E0,1.4325703E0,2.1963391E0,8.8838315E-1,4.0997076E-1,2.3962188E0,2.9214149E0,1.9719045E0,2.0520043E0,4.0311527E-1,0E0,1.3007833E0,0E0,1.9384487E0,2.1207504E0,2.4386978E-1,1.6262054E-2,1.806845E0,6.5133286E-1,0E0,8.320602E-1,7.901192E-4,1.9403566E-1,1.7043495E-1,1.3074803E0,9.8969525E-1,0E0,0E0,0E0,0E0,0E0,0E0,0E0,0E0,0E0,0E0,0E0,0E0,0E0,0E0,0E0,0E0,0E0,0E0,0E0,0E0,0E0,0E0],"parents":[2147483647,0,0,1,1,2,2,3,3,4,4,5,5,6,6,7,7,8,8,9,9,10,10,12,12,14,14,15,15,16,16,17,17,18,18,19,19,21,21,22,22,23,23,24,24,25,25,26,26],"right_children":[2,4,6,8,10,12,14,16,18,20,22,-1,24,-1,26,28,30,32,34,36,-1,38,40,42,44,46,48,-1,-1,-1,-1,-1,-1,-1,-1,-1,-1,-1,-1,-1,-1,-1,-1,-1,-1,-1,-1,-1,-1],"split_conditions":[6.8839676E1,6.358172E1,7.306497E1,5.288337E1,2.024E3,6.95154E1,7.351454E1,5.0082348E1,5.4739975E1,6.71713E1,6.8436745E1,-1.4118624E-1,7.1291695E1,1.3883735E-1,2.025E3,4.541739E1,6.311062E-1,5.400388E1,6.3073933E1,6.560044E1,-9.510066E-2,6.636101E1,6.8477745E1,7.017484E1,7.9776067E-1,7.526848E1,8.202645E-1,4.3506194E-2,-4.1670334E-2,1.0643474E-1,4.3102723E-2,-1.1905565E-1,-5.353085E-2,5.1140725E-3,-1.1903918E-1,4.672618E-3,9.219258E-2,8.88007E-2,-2.6500136E-2,1.5591986E-1,4.574564E-2,-3.299068E-2,3.4204677E-2,-1.3719349E-1,-4.0272202E-2,1.4520264E-2,-7.113626E-2,-1.4773666E-2,9.809739E-2],"split_indices":[0,0,0,0,2,0,0,0,0,0,0,0,0,0,2,0,1,0,0,0,0,0,0,0,1,0,1,0,0,0,0,0,0,0,0,0,0,0,0,0,0,0,0,0,0,0,0,0,0],"split_type":[0,0,0,0,0,0,0,0,0,0,0,0,0,0,0,0,0,0,0,0,0,0,0,0,0,0,0,0,0,0,0,0,0,0,0,0,0,0,0,0,0,0,0,0,0,0,0,0,0],"sum_hessian":[2.6115063E2,1.9813255E2,6.301809E1,1.6169044E2,3.64421E1,1.4942972E1,4.807512E1,6.754276E1,9.414769E1,1.7542791E1,1.889931E1,3.1072974E0,1.1835675E1,2.9087517E0,4.5166367E1,4.5588486E1,2.1954277E1,7.599534E0,8.654816E1,1.420756E1,3.3352325E0,1.4137239E1,4.7620697E0,5.749877E0,6.085798E0,3.4130844E1,1.10355215E1,2.586968E1,1.9718805E1,1.684243E1,5.1118474E0,4.5852447E0,3.0142896E0,8.258039E1,3.9677608E0,5.3688745E0,8.838685E0,1.1496026E1,2.641214E0,3.679303E0,1.0827667E0,1.6697099E0,4.0801673E0,3.9279575E0,2.1578405E0,9.454033E0,2.4676811E1,5.4585347E0,5.576987E0],"tree_param":{"num_deleted":"0","num_feature":"3","num_nodes":"49","size_leaf_vector":"1"}},{"base_weights":[1.4945723E-2,-4.9103647E-1,4.6392154E-2,-6.032137E-1,6.0924537E-2,3.3788893E-1,2.6849331E-2,-2.2726832E-1,-1.5332936E-1,1.5288461E-2,5.5839646E-1,1.12044014E-1,-3.7138328E-2,4.7360132E-3,-2.978419E-1,2.894025E-1,-3.4469527E-1,1.2607837E-1,2.9187007E-2,-1.2970744E-1,1.7890556E-1,-1.5015638E-1,-8.10446E-3,-1.6797863E-2,-7.503489E-2,2.0841515E-2,9.323485E-2,-1.019868E-1,-1.3928925E-2,-7.991745E-3,-6.457822E-2,1.4194968E-1,2.9839238E-2,7.774552E-2,-6.2185596E-3],"categories":[],"categories_nodes":[],"categories_segments":[],"categories_sizes":[],"default_left":[0,0,0,0,0,0,0,0,0,0,0,0,0,0,0,0,0,0,0,0,0,0,0,0,0,0,0,0,0,0,0,0,0,0,0],"id":4,"left_children":[1,3,5,7,-1,9,11,13,-1,15,17,19,21,-1,23,25,27,-1,-1,29,31,-1,33,-1,-1,-1,-1,-1,-1,-1,-1,-1,-1,-1,-1],"loss_changes":[4.0834656E0,1.5242894E0,1.3648958E0,6.5516233E-1,0E0,1.0633143E0,1.2422864E0,1.04664266E-1,0E0,8.048773E-1,1.7294216E-1,1.6018653E0,2.6969075E0,0E0,4.084903E-2,1.020233E-1,1.2562305E-1,0E0,0E0,3.6401168E-1,1.1073203E0,0E0,1.1648554E0,0E0,0E0,0E0,0E0,0E0,0E0,0E0,0E0,0E0,0E0,0E0,0E0],"parents":[2147483647,0,0,1,1,2,2,3,3,5,5,6,6,7,7,9,9,10,10,11,11,12,12,14,14,15,15,16,16,19,19,20,20,22,22],"right_children":[2,4,6,8,-1,10,12,14,-1,16,18,20,22,-1,24,26,28,-1,-1,30,32,-1,34,-1,-1,-1,-1,-1,-1,-1,-1,-1,-1,-1,-1],"split_conditions":[2.021E3,8.518848E1,2.023E3,5.1788795E1,6.0924537E-2,6.177846E1,5.805331E1,4.2317112E1,-1.5332936E-1,5.4905212E1,7.351454E1,4.4579697E1,5.8280647E1,4.7360132E-3,2.016E3,4.5404488E1,5.879889E1,1.2607837E-1,2.9187007E-2,3.7982082E1,4.541739E1,-1.5015638E-1,5.9579266E1,-1.6797863E-2,-7.503489E-2,2.0841515E-2,9.323485E-2,-1.019868E-1,-1.3928925E-2,-7.991745E-3,-6.457822E-2,1.4194968E-1,2.9839238E-2,7.774552E-2,-6.2185596E-3],"split_indices":[2,0,2,0,0,0,0,0,0,0,0,0,0,0,2,0,0,0,0,0,0,0,0,0,0,0,0,0,0,0,0,0,0,0,0],"split_type":[0,0,0,0,0,0,0,0,0,0,0,0,0,0,0,0,0,0,0,0,0,0,0,0,0,0,0,0,0,0,0,0,0,0,0],"sum_hessian":[2.5420712E2,1.4019195E1,2.4018793E2,1.2498888E1,1.520306E0,1.4067674E1,2.2612025E2,4.51155E0,7.987338E0,6.1457825E0,7.921891E0,9.666593E1,1.2945433E2,1.136127E0,3.3754232E0,3.6003327E0,2.54545E0,6.29477E0,1.6271216E0,2.0739206E1,7.592673E1,4.089005E0,1.2536532E2,1.450458E0,1.924965E0,2.5345323E0,1.0658003E0,1.0566785E0,1.4887714E0,1.4984563E1,5.7546425E0,2.810972E0,7.311575E1,5.993518E0,1.193718E2],"tree_param":{"num_deleted":"0","num_feature":"3","num_nodes":"35","size_leaf_vector":"1"}},{"base_weights":[-1.36654945E-2,-2.277543E-2,9.957728E-2,5.009412E-3,-2.4516955E-1,-1.1082636E-2,4.437533E-1,-3.287056E-1,1.04132764E-1,8.670861E-3,-2.9484048E-1,-1.9995954E-2,1.1448737E-1,-2.1901017E-1,-1.2806989E-1,1.0869249E-1,-1.6821058E-1,4.2394707E-3,-1.3604288E-1,-1.4492528E-1,-2.4564162E-2,-1.3222359E-1,-2.407068E-2,-7.611158E-2,2.3090038E-2],"categories":[],"categories_nodes":[],"categories_segments":[],"categories_sizes":[],"default_left":[0,0,0,0,0,0,0,0,0,0,0,0,0,0,0,0,0,0,0,0,0,0,0,0,0],"id":5,"left_children":[1,3,-1,5,7,9,11,13,15,17,19,-1,-1,21,-1,-1,23,-1,-1,-1,-1,-1,-1,-1,-1],"loss_changes":[1.1742996E0,1.5221803E0,0E0,1.5566616E0,8.324714E-1,1.196379E0,6.0301733E-1,6.2269497E-1,8.139854E-1,1.7410944E0,9.379319E-1,0E0,0E0,7.0670664E-1,0E0,0E0,3.144909E-1,0E0,0E0,0E0,0E0,0E0,0E0,0E0,0E0],"parents":[2147483647,0,0,1,1,3,3,4,4,5,5,6,6,7,7,8,8,9,9,10,10,13,13,16,16],"right_children":[2,4,-1,6,8,10,12,14,16,18,20,-1,-1,22,-1,-1,24,-1,-1,-1,-1,-1,-1,-1,-1],"split_conditions":[9.0815717E-1,8.728907E-1,9.957728E-2,8.5915154E-1,7.53141E1,8.02703E1,2.024E3,9.0114015E-1,7.750419E1,8.497982E-1,8.095878E1,-1.9995954E-2,1.1448737E-1,8.7714666E-1,-1.2806989E-1,1.0869249E-1,8.958427E-1,4.2394707E-3,-1.3604288E-1,-1.4492528E-1,-2.4564162E-2,-1.3222359E-1,-2.407068E-2,-7.611158E-2,2.3090038E-2],"split_indices":[1,1,0,1,0,0,2,1,0,1,0,0,0,1,0,0,1,0,0,0,0,0,0,0,0],"split_type":[0,0,0,0,0,0,0,0,0,0,0,0,0,0,0,0,0,0,0,0,0,0,0,0,0],"sum_hessian":[2.4855128E2,2.4514119E2,3.4101014E0,2.1878476E2,2.635643E1,2.1198444E2,6.800328E0,2.1317331E1,5.0390997E0,1.9909415E2,1.2890282E1,1.3440986E0,5.4562297E0,1.7026821E1,4.290509E0,1.5474048E0,3.491695E0,1.9649045E2,2.6036963E0,2.7663014E0,1.01239805E1,2.0662417E0,1.496058E1,1.8015025E0,1.6901923E0],"tree_param":{"num_deleted":"0","num_feature":"3","num_nodes":"25","size_leaf_vector":"1"}},{"base_weights":[3.6768296E-3,-2.2626545E-1,3.5617E-2,-1.2740172E-1,-1.732299E-1,-7.3761396E-2,1.2647696E-1,5.5825554E-2,-3.1829923E-1,-1.2845352E-1,3.7328124E-1,1.5668187E-1,-4.190403E-1,2.3871009E-1,-5.3338222E-2,-3.8606322E-1,-1.6571267E-1,1.2983513E-2,-2.2285017E-1,4.4178578E-1,-2.113018E-2,3.6093947E-1,1.00352824E-1,-1.211707E-1,3.5935014E-2,-1.1561488E-2,6.835962E-2,5.5245597E-2,-6.4049624E-2,1.8735537E-2,-1.2623613E-1,-8.9763306E-2,3.0996291E-2,-8.723071E-2,3.4550015E-2,-1.3716383E-1,-2.7316928E-2,1.22241914E-1,5.1075436E-2,1.2394842E-1,-7.055223E-3,-3.866412E-2,3.9427813E-2],"categories":[],"categories_nodes":[],"categories_segments":[],"categories_sizes":[],"default_left":[0,0,0,0,0,0,0,0,0,0,0,0,0,0,0,0,0,0,0,0,0,0,0,0,0,0,0,0,0,0,0,0,0,0,0,0,0,0,0,0,0,0,0],"id":6,"left_children":[1,3,5,-1,7,9,11,13,15,17,19,21,23,25,27,29,31,33,35,37,-1,39,41,-1,-1,-1,-1,-1,-1,-1,-1,-1,-1,-1,-1,-1,-1,-1,-1,-1,-1,-1,-1],"loss_changes":[1.7798833E0,5.335765E-1,2.1230562E0,0E0,9.333189E-1,2.4230223E0,1.9860476E0,2.4301258E-1,1.1199093E-1,1.1684E0,4.0248847E-1,1.2427568E0,8.23202E-1,1.571315E-1,7.9573643E-1,1.3564836E0,7.037816E-1,2.6504767E0,1.9994667E0,1.4965284E-1,0E0,2.4463289E0,2.5540857E0,0E0,0E0,0E0,0E0,0E0,0E0,0E0,0E0,0E0,0E0,0E0,0E0,0E0,0E0,0E0,0E0,0E0,0E0,0E0,0E0],"parents":[2147483647,0,0,1,1,2,2,4,4,5,5,6,6,7,7,8,8,9,9,10,10,11,11,12,12,13,13,14,14,15,15,16,16,17,17,18,18,19,19,21,21,22,22],"right_children":[2,4,6,-1,8,10,12,14,16,18,20,22,24,26,28,30,32,34,36,38,-1,40,42,-1,-1,-1,-1,-1,-1,-1,-1,-1,-1,-1,-1,-1,-1,-1,-1,-1,-1,-1,-1],"split_conditions":[4.6811634E1,2.021E3,2.024E3,-1.2740172E-1,2.024E3,8.095878E1,9.0370935E-1,2.022E3,2.025E3,6.106868E1,8.819864E1,5.2667747E1,9.2428875E-1,3.6207718E1,2.9146631E1,3.3420986E1,2.5092237E1,5.2097755E1,6.2610386E1,8.12972E1,-2.113018E-2,6.311062E-1,5.6977604E1,-1.211707E-1,3.5935014E-2,-1.1561488E-2,6.835962E-2,5.5245597E-2,-6.4049624E-2,1.8735537E-2,-1.2623613E-1,-8.9763306E-2,3.0996291E-2,-8.723071E-2,3.4550015E-2,-1.3716383E-1,-2.7316928E-2,1.22241914E-1,5.1075436E-2,1.2394842E-1,-7.055223E-3,-3.866412E-2,3.9427813E-2],"split_indices":[0,2,2,0,2,0,1,2,2,0,0,0,1,0,0,0,0,0,0,0,0,1,0,0,0,0,0,0,0,0,0,0,0,0,0,0,0,0,0,0,0,0,0],"split_type":[0,0,0,0,0,0,0,0,0,0,0,0,0,0,0,0,0,0,0,0,0,0,0,0,0,0,0,0,0,0,0,0,0,0,0,0,0,0,0,0,0,0,0],"sum_hessian":[2.4024847E2,2.8559578E1,2.116889E2,2.006775E0,2.6552803E1,9.6141136E1,1.1554777E2,1.0534562E1,1.6018242E1,8.629614E1,9.844991E0,1.1016101E2,5.3867536E0,3.494101E0,7.040461E0,1.0032613E1,5.985629E0,3.4886787E1,5.1409355E1,8.680874E0,1.1641165E0,2.2643726E1,8.751728E1,4.096597E0,1.2901565E0,1.014702E0,2.479399E0,3.1348293E0,3.905632E0,3.6015418E0,6.431071E0,2.9669423E0,3.0186868E0,8.699825E0,2.6186962E1,6.982995E0,4.442636E1,3.353794E0,5.32708E0,1.3355767E1,9.287959E0,2.1446348E1,6.607094E1],"tree_param":{"num_deleted":"0","num_feature":"3","num_nodes":"43","size_leaf_vector":"1"}},{"base_weights":[1.1184115E-2,-4.481372E-1,2.7063461E-2,-1.7403369E-1,-1.2721743E-1,1.6295904E-2,3.6433122E-1,-4.080377E-2,-9.272944E-3,2.2505759E-1,-2.9256687E-4,-6.354847E-2,1.0831089E-1,1.745236E-2,3.5060158E-1,8.9197926E-2,-5.9098687E-2,7.604834E-2,-3.835685E-2,1.20769285E-1,1.1678982E-2,1.3333953E-2,1.3335933E-1,-2.6331311E-2,2.4928106E-2],"categories":[],"categories_nodes":[],"categories_segments":[],"categories_sizes":[],"default_left":[0,0,0,0,0,0,0,0,0,0,0,0,0,0,0,0,0,0,0,0,0,0,0,0,0],"id":7,"left_children":[1,3,5,7,-1,9,11,-1,-1,13,15,-1,-1,17,19,21,23,-1,-1,-1,-1,-1,-1,-1,-1],"loss_changes":[1.7945663E0,3.129382E-1,8.553089E-1,8.615822E-3,0E0,7.995641E-1,1.0533278E0,0E0,0E0,4.3685323E-1,1.1360462E0,0E0,0E0,6.389835E-1,7.4460244E-1,1.0694454E0,1.7530849E0,0E0,0E0,0E0,0E0,0E0,0E0,0E0,0E0],"parents":[2147483647,0,0,1,1,2,2,3,3,5,5,6,6,9,9,10,10,13,13,14,14,15,15,16,16],"right_children":[2,4,6,8,-1,10,12,-1,-1,14,16,-1,-1,18,20,22,24,-1,-1,-1,-1,-1,-1,-1,-1],"split_conditions":[2.019E3,2.017E3,9.0282834E-1,2.016E3,-1.2721743E-1,2.023E3,6.1099163E1,-4.080377E-2,-9.272944E-3,6.0214607E1,5.712392E1,-6.354847E-2,1.0831089E-1,4.2317112E1,6.40251E1,5.7068516E1,2.025E3,7.604834E-2,-3.835685E-2,1.20769285E-1,1.1678982E-2,1.3333953E-2,1.3335933E-1,-2.6331311E-2,2.4928106E-2],"split_indices":[2,2,1,2,0,2,0,0,0,0,0,0,0,0,0,0,2,0,0,0,0,0,0,0,0],"split_type":[0,0,0,0,0,0,0,0,0,0,0,0,0,0,0,0,0,0,0,0,0,0,0,0,0],"sum_hessian":[2.4337976E2,7.223167E0,2.3615659E2,3.7215984E0,3.5015683E0,2.2986624E2,6.2903566E0,2.5294788E0,1.1921197E0,1.5995819E1,2.1387042E2,1.1338089E0,5.1565475E0,6.457093E0,9.538726E0,8.460407E1,1.2926634E2,2.0629401E0,4.3941526E0,4.538698E0,5.0000277E0,8.250168E1,2.1023989E0,9.287417E1,3.6392174E1],"tree_param":{"num_deleted":"0","num_feature":"3","num_nodes":"25","size_leaf_vector":"1"}},{"base_weights":[-2.2572953E-2,7.643839E-2,-7.018814E-2,1.2011158E-1,-8.919876E-2,-2.926937E-1,-1.8207738E-2,-2.495872E-2,1.6498442E-1,-1.374061E-1,6.587871E-2,-4.001498E-1,3.578457E-1,-3.851427E-2,3.1572142E-1,7.923085E-2,-1.4831382E-1,3.164006E-1,6.4537056E-2,-1.2131002E-1,2.0767532E-1,-4.7655413E-1,-1.7940955E-1,1.230011E-1,4.651463E-3,-9.242384E-2,1.2981264E-1,1.1994082E-1,-5.9807833E-2,-1.1279092E-1,-7.905608E-3,2.6628498E-2,1.14845276E-1,4.3625966E-2,-1.871164E-2,1.0372838E-1,1.3983302E-2,-4.083017E-2,-1.2786828E-1,8.9720435E-2,-8.8635E-2,-2.7145592E-3,-4.0853318E-2,4.434061E-2,-2.4500381E-2],"categories":[],"categories_nodes":[],"categories_segments":[],"categories_sizes":[],"default_left":[0,0,0,0,0,0,0,0,0,0,0,0,0,0,0,0,0,0,0,0,0,0,0,0,0,0,0,0,0,0,0,0,0,0,0,0,0,0,0,0,0,0,0,0,0],"id":8,"left_children":[1,3,5,7,9,11,13,15,17,-1,19,21,23,25,27,-1,29,31,33,-1,35,37,39,-1,-1,41,43,-1,-1,-1,-1,-1,-1,-1,-1,-1,-1,-1,-1,-1,-1,-1,-1,-1,-1],"loss_changes":[1.1408372E0,5.799618E-1,1.8817443E0,4.1226792E-1,1.6206936E0,2.2984488E0,9.162392E-1,8.733137E-1,7.099011E-1,0E0,1.4995033E0,3.6873674E-1,4.0719247E-1,1.1605924E0,1.5326295E0,0E0,5.589888E-1,8.162668E-1,7.518822E-1,0E0,5.0529003E-1,7.2991705E-1,1.6116143E0,0E0,0E0,8.4785396E-1,7.486871E-1,0E0,0E0,0E0,0E0,0E0,0E0,0E0,0E0,0E0,0E0,0E0,0E0,0E0,0E0,0E0,0E0,0E0,0E0],"parents":[2147483647,0,0,1,1,2,2,3,3,4,4,5,5,6,6,7,7,8,8,10,10,11,11,12,12,13,13,14,14,16,16,17,17,18,18,20,20,21,21,22,22,25,25,26,26],"right_children":[2,4,6,8,10,12,14,16,18,-1,20,22,24,26,28,-1,30,32,34,-1,36,38,40,-1,-1,42,44,-1,-1,-1,-1,-1,-1,-1,-1,-1,-1,-1,-1,-1,-1,-1,-1,-1,-1],"split_conditions":[5.601401E1,6.311062E-1,6.0007442E1,4.11264E1,8.48259E-1,8.4480196E-1,9.028363E-1,1.2372336E1,4.8832E1,-1.374061E-1,4.8684883E1,5.8280647E1,8.48259E-1,2.025E3,9.090163E-1,7.923085E-2,2.5092237E1,4.716741E1,2.024E3,-1.2131002E-1,8.6537063E-1,5.6824554E1,5.8954952E1,1.230011E-1,4.651463E-3,7.087E1,7.8639496E1,1.1994082E-1,-5.9807833E-2,-1.1279092E-1,-7.905608E-3,2.6628498E-2,1.14845276E-1,4.3625966E-2,-1.871164E-2,1.0372838E-1,1.3983302E-2,-4.083017E-2,-1.2786828E-1,8.9720435E-2,-8.8635E-2,-2.7145592E-3,-4.0853318E-2,4.434061E-2,-2.4500381E-2],"split_indices":[0,1,0,0,1,1,1,0,0,0,0,0,1,2,1,0,0,0,2,0,1,0,0,0,0,0,0,0,0,0,0,0,0,0,0,0,0,0,0,0,0,0,0,0,0],"split_type":[0,0,0,0,0,0,0,0,0,0,0,0,0,0,0,0,0,0,0,0,0,0,0,0,0,0,0,0,0,0,0,0,0,0,0,0,0,0,0,0,0,0,0,0,0],"sum_hessian":[2.3984967E2,7.7691696E1,1.6215797E2,6.169861E1,1.5993086E1,2.9831482E1,1.3232649E2,1.4680741E1,4.7017868E1,2.5875823E0,1.3405504E1,2.5932798E1,3.898684E0,1.2557483E2,6.7516556E0,2.8250418E0,1.18557E1,1.7894087E1,2.9123781E1,1.763764E0,1.164174E1,1.840383E1,7.52897E0,1.7305287E0,2.1681552E0,9.545475E1,3.0120085E1,4.635037E0,2.1166186E0,1.5913814E0,1.0264318E1,1.1345972E1,6.548114E0,1.4579633E1,1.4544148E1,2.7252061E0,8.916533E0,7.7272987E0,1.0676531E1,2.0196135E0,5.509356E0,5.664231E1,3.8812435E1,2.2168034E1,7.95205E0],"tree_param":{"num_deleted":"0","num_feature":"3","num_nodes":"45","size_leaf_vector":"1"}},{"base_weights":[1.64649E-2,4.262254E-2,-1.3807026E-1,1.9045211E-2,2.6077276E-1,-2.9937366E-1,8.275369E-2,3.2997005E-2,-1.0670964E-1,-8.301524E-2,3.4014383E-1,2.3755346E-1,-4.7178188E-1,-1.5190868E-1,2.2680828E-1,1.952842E-2,3.7646818E-1,1.10594474E-1,1.22811444E-1,-5.4955333E-3,1.0242279E-1,-2.599644E-1,-1.6112995E-1,7.2959356E-2,-3.5374728E-1,-1.5425118E-2,9.194277E-2,8.328428E-3,-8.80368E-2,1.2168675E-2,1.2051394E-1,-9.265757E-2,7.39465E-2,-7.720276E-2,9.026342E-2,-2.3624506E-2,-8.49721E-2,6.368805E-2,-1.141718E-1],"categories":[],"categories_nodes":[],"categories_segments":[],"categories_sizes":[],"default_left":[0,0,0,0,0,0,0,0,0,0,0,0,0,0,0,0,0,0,0,0,0,0,0,0,0,0,0,0,0,0,0,0,0,0,0,0,0,0,0],"id":9,"left_children":[1,3,5,7,9,11,13,15,-1,-1,17,19,21,23,25,27,29,-1,31,-1,-1,33,-1,-1,35,37,-1,-1,-1,-1,-1,-1,-1,-1,-1,-1,-1,-1,-1],"loss_changes":[9.88375E-1,1.0681145E0,1.2864611E0,1.4775245E0,1.228557E0,2.0269637E0,5.663757E-1,8.514347E-1,0E0,0E0,7.965772E-1,4.283268E-1,9.215572E-1,8.1572276E-1,5.7979304E-1,1.8450541E0,4.593234E-1,0E0,1.6955677E0,0E0,0E0,1.1838665E0,0E0,0E0,3.7656426E-2,1.2839407E0,0E0,0E0,0E0,0E0,0E0,0E0,0E0,0E0,0E0,0E0,0E0,0E0,0E0],"parents":[2147483647,0,0,1,1,2,2,3,3,4,4,5,5,6,6,7,7,10,10,11,11,12,12,13,13,14,14,15,15,16,16,18,18,21,21,24,24,25,25],"right_children":[2,4,6,8,10,12,14,16,-1,-1,18,20,22,24,26,28,30,-1,32,-1,-1,34,-1,-1,36,38,-1,-1,-1,-1,-1,-1,-1,-1,-1,-1,-1,-1,-1],"split_conditions":[8.638117E-1,8.2231784E-1,6.268121E1,8.010292E-1,5.608353E1,5.0249405E1,8.846912E-1,7.8076166E-1,-1.0670964E-1,-8.301524E-2,6.080075E1,8.8683665E-1,2.025E3,6.279917E1,7.306497E1,6.311062E-1,7.463329E1,1.10594474E-1,6.47466E1,-5.4955333E-3,1.0242279E-1,9.0282834E-1,-1.6112995E-1,7.2959356E-2,8.777052E-1,6.574691E1,9.194277E-2,8.328428E-3,-8.80368E-2,1.2168675E-2,1.2051394E-1,-9.265757E-2,7.39465E-2,-7.720276E-2,9.026342E-2,-2.3624506E-2,-8.49721E-2,6.368805E-2,-1.141718E-1],"split_indices":[1,1,0,1,0,0,1,1,0,0,0,1,2,0,0,1,0,0,0,0,0,1,0,0,1,0,0,0,0,0,0,0,0,0,0,0,0,0,0],"split_type":[0,0,0,0,0,0,0,0,0,0,0,0,0,0,0,0,0,0,0,0,0,0,0,0,0,0,0,0,0,0,0,0,0,0,0,0,0,0,0],"sum_hessian":[2.4205376E2,2.0763268E2,3.4421085E1,1.8836209E2,1.9270573E1,1.9685715E1,1.4735371E1,1.8464061E2,3.721491E0,1.5807592E0,1.7689814E1,4.6928916E0,1.4992824E1,5.584233E0,9.151138E0,1.7869044E2,5.950158E0,8.1572485E0,9.532564E0,2.8457918E0,1.8470999E0,1.0261324E1,4.731499E0,1.3418183E0,4.2424145E0,4.943462E0,4.207676E0,1.7135701E2,7.333432E0,3.0131166E0,2.9370415E0,2.5658722E0,6.9666924E0,9.105072E0,1.1562524E0,1.6004783E0,2.6419363E0,3.3540566E0,1.5894054E0],"tree_param":{"num_deleted":"0","num_feature":"3","num_nodes":"39","size_leaf_vector":"1"}}]},"name":"gbtree"},"learner_model_param":{"base_score":"[2.1617534E-9]","boost_from_average":"1","num_class":"0","num_feature":"3","num_target":"1"},"objective":{"lambdarank_param":{"lambdarank_bias_norm":"1","lambdarank_normalization":"1","lambdarank_num_pair_per_sample":"4294967295","lambdarank_pair_method":"topk","lambdarank_score_normalization":"1","lambdarank_unbiased":"0","ndcg_exp_gain":"1"},"name":"rank:pairwise"}},"version":[3,1,2]}